<?xml version="1.0"?>
<opencv_storage>
<stage8>
  <maxWeakCount>5</maxWeakCount>
  <stageThreshold>-1.6961824893951416e+00</stageThreshold>
  <weakClassifiers>
    <_>
      <internalNodes>
        0 -1 4792 -150777441 -576814688 356578749 -552237031 -1199459653
        -1045921664 -343294277 -151549902</internalNodes>
      <leafValues>
        -9.0426641702651978e-01 -1.1904762126505375e-02</leafValues></_>
    <_>
      <internalNodes>
        0 -1 2598 -4849747 -612382695 -2020254435 -1085074018 2023979509
        2000558607 -74959887 1405564351</internalNodes>
      <leafValues>
        -9.0437704324722290e-01 2.2512421011924744e-01</leafValues></_>
    <_>
      <internalNodes>
        0 -1 7482 -2635787 1390272990 -1873620642 -137044883 -217429000
        -1570106695 -90308611 -587957396</internalNodes>
      <leafValues>
        -8.3635914325714111e-01 4.1979095339775085e-01</leafValues></_>
    <_>
      <internalNodes>
        0 -1 5574 -477902628 1086324883 4231493 -645136300 -1610055649
        -1317011316 -1719661869 -209310924</internalNodes>
      <leafValues>
        -7.6259452104568481e-01 5.4191088676452637e-01</leafValues></_>
    <_>
      <internalNodes>
        0 -1 5179 -715795600 5623953 -2012096105 -2506329 -805267315
        514097288 -117315190 -1731491689</internalNodes>
      <leafValues>
        -8.0561256408691406e-01 5.8191335201263428e-01</leafValues></_></weakClassifiers></stage8>
</opencv_storage>
