<?xml version="1.0"?>
<opencv_storage>
<stage15>
  <maxWeakCount>4</maxWeakCount>
  <stageThreshold>-1.3002376556396484e+00</stageThreshold>
  <weakClassifiers>
    <_>
      <internalNodes>
        0 -1 6669 -203696225 -1476947811 -2125397929 -295980189
        -610283035 -524221838 -1823233499 -287314193</internalNodes>
      <leafValues>
        -9.0270268917083740e-01 -1.7647059261798859e-01</leafValues></_>
    <_>
      <internalNodes>
        0 -1 25 -1803089217 -51780434 -180102017 1053692964 403286765
        -1132885573 -1292923930 -473140860</internalNodes>
      <leafValues>
        -8.4190493822097778e-01 2.0560443401336670e-01</leafValues></_>
    <_>
      <internalNodes>
        0 -1 2000 -715590146 1977188569 1360646621 2102485787 1822683645
        2143009251 1896735599 1467187187</internalNodes>
      <leafValues>
        -9.0709108114242554e-01 3.0772826075553894e-01</leafValues></_>
    <_>
      <internalNodes>
        0 -1 3856 -725318866 2062504017 -167930401 801835736 -1434402817
        2005508853 -1347470337 972139971</internalNodes>
      <leafValues>
        -9.1086763143539429e-01 3.4257629513740540e-01</leafValues></_></weakClassifiers></stage15>
</opencv_storage>
